{"neuron": {"0": {"w": [-0.7181991203994138, -0.8772269242262164, 0.22893522017300047, -0.042431653784199774, 0.14601037354078905, -1.6267267909129124, 0.6137215694959501, -0.9233705303665543, -0.38382160787079606, 1.0958788363145462, 2.183997604195608, 0.39053234937491077], "b": -0.33161669824487405}, "1": {"w": [-2.0604740176080556, 0.792526136561762, -0.5098185828520956, 1.5871093988404559, -0.7468147491169695, 0.019089312587097212, -0.008262348252432269, 0.9618677034743593, -1.1924281753941153, -1.321694391650726, 0.2260561628663872, -2.3345865455259327], "b": -1.6501237105072717}, "2": {"w": [0.8959866556568155, -1.1108446658786213, 0.457087612439164, -0.9339195268885662, 1.7119293663832928, 0.013090191591584893, -0.4372748406540272, 0.37118353208859073, -1.4287109195220768, -1.7504593570585658, 1.3360298060742424, 0.10056406067792843], "b": -1.0838416228999046}, "3": {"w": [-0.33808075575480506, -2.035770750720131, -1.1582731299689488, -1.5097686608116647, -0.8207423993302917, -0.6358924084547894, 0.9005148847634246, -0.46703930062774496, 0.12550592801113863, -0.5102859183481784, -0.6264187465558192, -0.34966554979336406], "b": -0.7733671805968799}, "4": {"w": [0.9775133492757446, 0.34666131841100656, 0.7609426951710244, -2.182277673919125, 1.200593342066708, 0.7570175958093973, -1.231257944609069, 0.22752605812665352, 0.11065752712598931, 0.5781304594179968, -1.1532805227757168, 0.6738238545274563], "b": 0.5312780580463905}, "5": {"w": [0.3255791750658301, -0.052456864388492966, 1.6791640834399701, 0.17796064719520607, 0.9009770156922217, 0.15925119904757745, 0.19861685253419573, -0.4181734070830374, -0.20803003769556982, 0.05762120500033365, 1.1234687793902545, -0.16798898856354194], "b": 0.5054956846027009}, "6": {"w": [0.2427058170746406, 0.03334337933070198, -1.0891336944475571, 1.461448587418024, 0.46050097953504987, -0.7175886221534674, -0.9464823385075696, -1.510130454788481, 0.1701426537881951, -1.285249890989386, -0.5697053599491344, -1.2924534024156127], "b": 0.23234059897031836}, "7": {"w": [0.055911821574213094, 1.2746116124574067, -0.14479316155985983, 0.1474369416112403, -1.1336942007389168, -0.42974820820117093, 1.7330274706040696, 2.693978864412346, 0.009801378439936455, -0.1564396081408766, 0.014145395223765542, -1.2131040209060815], "b": 1.3449188253449318}, "OUT": {"w": [0.5986294856519487, -0.5477994797427247, 0.04355407309624812, 2.8167397930494418, 0.08286319479116529, 0.3693516506108322, 0.46731129921241615, -0.23059967556013555, -0.5447480094178773, -1.8349717883192644, -0.20656633772569236, -0.3813711921284561], "b": -0.8227619162096269}}}